    0.755860757802856824E+02   -0.269879043916663952E+00   -0.662727399814145635E+01   -0.558059011580016029E+00    0.188848063983575081E+02    0.142314454027579501E+00    0.308680052841185715E+01    0.701088995471660092E-01    0.323251518080299102E-01    0.132677331479596425E+02    0.114359047663655303E+00    0.210623348750339012E+01    0.422504140004592632E+00    0.393438814508817125E+00    0.658464571823020369E-02    0.791340693980856075E-01    0.240559136374069414E-01    0.214494514545927502E-01    0.680503249962509926E+02   -0.314422692992432751E+00   -0.877252542402594848E+01   -0.352841426942397618E+00    0.190951988791533651E+02    0.137643472264563083E+00    0.304145738944583011E+01    0.494148924539657419E-01    0.204367807876812968E-01    0.680503249962509926E+02   -0.314422692992432751E+00   -0.877252542402594848E+01   -0.352841426942397618E+00    0.190951988791533651E+02    0.137643472264563083E+00    0.304145738944583011E+01    0.494148924539657419E-01    0.204367807876812968E-01   -0.383498426936176656E+03   -0.355063729157837201E+03   -0.384823752819683989E+03    0.829848024026341585E-01
    0.755860757802933279E+02   -0.269879043916690931E+00   -0.662727399814213314E+01   -0.558059011580072428E+00    0.188848063983593910E+02    0.142314454027594045E+00    0.308680052841216934E+01    0.701088995471731147E-01    0.323251518080331715E-01    0.132677331479386318E+02    0.114359047663629698E+00    0.210623348750242689E+01    0.422504140004576256E+00    0.393438814463884345E+00    0.658464571807239676E-02    0.791340693919574539E-01    0.240559136373977474E-01    0.214494514545913520E-01    0.680503249962509926E+02   -0.314422692992432751E+00   -0.877252542402594848E+01   -0.352841426942397618E+00    0.190951988791533651E+02    0.137643472264563083E+00    0.304145738944583011E+01    0.494148924539657419E-01    0.204367807876812968E-01    0.680503249962509926E+02   -0.314422692992432751E+00   -0.877252542402594848E+01   -0.352841426942397618E+00    0.190951988791533651E+02    0.137643472264563083E+00    0.304145738944583011E+01    0.494148924539657419E-01    0.204367807876812968E-01   -0.381763339667794639E+03   -0.355063729157837201E+03
