    0.746813594514722752E+02   -0.407714050772372438E+00    0.221958987598459945E+00   -0.192071281036833366E-01    0.189373353783698981E+02    0.140998494619786419E+00    0.310756216301724475E+01    0.701622060173501816E-01    0.238969242678915811E+00    0.140899681780290873E+02    0.117868797679860957E+00    0.106024692330947223E+01    0.527284129260434775E+00    0.420302167295082241E+00    0.629417465734165987E-02    0.779897787252884500E-01    0.213588507748442187E-01    0.408937919742015155E+00    0.647753839054883684E+02   -0.382092941556229970E+00    0.344377394361618627E+00   -0.159883714254895892E+00    0.191990979220501643E+02    0.142504711865909656E+00    0.309318926468986177E+01    0.593737170157890431E-01    0.102604457568148622E+00    0.647753839054883684E+02   -0.382092941556229970E+00    0.344377394361618627E+00   -0.159883714254895892E+00    0.191990979220501643E+02    0.142504711865909656E+00    0.309318926468986177E+01    0.593737170157890431E-01    0.102604457568148622E+00   -0.366511855942443503E+03   -0.341416770455655069E+03   -0.369494897102880316E+03    0.403810795416075577E-01
    0.746813594514983095E+02   -0.407714050772514547E+00    0.221958987598537050E+00   -0.192071281036900396E-01    0.189373353783765097E+02    0.140998494619835379E+00    0.310756216301831856E+01    0.701622060173746620E-01    0.238969242678998772E+00    0.140899681779625041E+02    0.117868797679634790E+00    0.106024692330964898E+01    0.527284129260526147E+00    0.420302167145907957E+00    0.629417465679595663E-02    0.779897787042768548E-01    0.213588507748074460E-01    0.408937919742062506E+00    0.647753839054883684E+02   -0.382092941556229970E+00    0.344377394361618627E+00   -0.159883714254895892E+00    0.191990979220501643E+02    0.142504711865909656E+00    0.309318926468986177E+01    0.593737170157890431E-01    0.102604457568148622E+00    0.647753839054883684E+02   -0.382092941556229970E+00    0.344377394361618627E+00   -0.159883714254895892E+00    0.191990979220501643E+02    0.142504711865909656E+00    0.309318926468986177E+01    0.593737170157890431E-01    0.102604457568148622E+00   -0.366309735470595456E+03   -0.341416770455655069E+03
