    0.786911581318343707E+02   -0.347240285250612291E+00    0.136356329588801173E+01   -0.250163325212077015E+00    0.188154341986896085E+02    0.143725757139400778E+00    0.308649181310291221E+01    0.689928073146387211E-01    0.233961731900514003E+00    0.145307661739770388E+02    0.116621228804503360E+00    0.201582821793513212E+01    0.490751006373234655E+00    0.423665885329603920E+00    0.590024109891268585E-02    0.722531016293112560E-01    0.210856582048986503E-01    0.460562869573807376E+00    0.963825909121812003E+02   -0.319474326101260697E+00    0.579992124719683133E+01   -0.552476506323946737E+00    0.183256176472269630E+02    0.147238585143516398E+00    0.308356172077241908E+01    0.657750089963915763E-01    0.188335689130303408E-01    0.963825909121812003E+02   -0.319474326101260697E+00    0.579992124719683133E+01   -0.552476506323946737E+00    0.183256176472269630E+02    0.147238585143516398E+00    0.308356172077241908E+01    0.657750089963915763E-01    0.188335689130303408E-01   -0.379566942950630391E+03   -0.352550481525426335E+03   -0.381585151024547486E+03    0.568063100298158360E-01
    0.786911581318348397E+02   -0.347240285250614511E+00    0.136356329588801950E+01   -0.250163325212078791E+00    0.188154341986897222E+02    0.143725757139401777E+00    0.308649181310293219E+01    0.689928073146390958E-01    0.233961731900515307E+00    0.145307661739757865E+02    0.116621228804499127E+00    0.201582821793513567E+01    0.490751006373235599E+00    0.423665885327255909E+00    0.590024109889710369E-02    0.722531016287457917E-01    0.210856582048980952E-01    0.460562869573808265E+00    0.963825909121812003E+02   -0.319474326101260697E+00    0.579992124719683133E+01   -0.552476506323946737E+00    0.183256176472269630E+02    0.147238585143516398E+00    0.308356172077241908E+01    0.657750089963915763E-01    0.188335689130303408E-01    0.963825909121812003E+02   -0.319474326101260697E+00    0.579992124719683133E+01   -0.552476506323946737E+00    0.183256176472269630E+02    0.147238585143516398E+00    0.308356172077241908E+01    0.657750089963915763E-01    0.188335689130303408E-01   -0.378535052117021735E+03   -0.352550481525426335E+03
