    0.831341589471397810E+02   -0.627538720509198011E+00    0.133153867324929998E+01    0.651418548284965482E-01    0.650321053664583815E+00   -0.360084959919239722E+00    0.770162023208228685E+00   -0.151914059351552710E+01    0.233758088508806416E-02   -0.534052640082457287E+03
    0.755163353955557000E+02   -0.442771808792595145E+00    0.239665371665967797E+00   -0.113180618144312461E+00    0.885091130726342712E+00   -0.185466950814218823E+00    0.125205114788654459E+01   -0.103240297357292476E+01    0.856540837981256686E-03   -0.532578848063893474E+03
    0.926943504274639452E+02   -0.150993090576180489E+00   -0.688819494842141111E+00    0.446286559389410087E+00    0.737399343746032443E-01   -0.666961480897264147E+00   -0.331761231247380994E+00   -0.141554043092508675E+01    0.294282672759105246E-02   -0.531285968225419310E+03
    0.764546192900984352E+02   -0.535034351362434712E+00    0.966793858890873992E+00    0.761566697730387432E+00    0.751482390411060130E-01   -0.195178002532026884E+00   -0.287972467840221125E+00    0.311163758574789728E+00    0.544949222800217292E-02   -0.530850758666477532E+03
    0.737829428718158056E+02   -0.355191670035543083E+00    0.107826768405905327E+00    0.105086939614792385E+01    0.871900344754417134E-01   -0.154018089787658852E+00   -0.177857604669598168E+01    0.139998059612442383E+00    0.136144655996139896E-02   -0.530771578088946853E+03
    0.603925698579896419E+02   -0.451777658228168288E+00    0.463062438679608945E+00    0.306945441878418990E-01    0.415660535694328814E-01    0.287075596048640413E+00    0.290863090901733568E+00    0.163119807331501576E+01    0.213684445089312725E-02   -0.529966238886687051E+03
    0.846867529667697596E+02   -0.317352740965825220E+00   -0.255456441474427365E+00    0.628465259976563217E+00    0.343349892351549890E-01   -0.457999998511570805E+00    0.133577717999626566E+01   -0.656939881809932125E+00    0.359138251566992750E-02   -0.529901796736117376E+03
    0.697203890226321761E+02   -0.234601595178913325E+00   -0.609457434371009299E+00   -0.773684727730934441E-01    0.312828322592776153E+00   -0.348491784733169219E-01   -0.155373198748946661E+01   -0.383089819096269935E+00    0.108975880766348787E-02   -0.529900737311416719E+03
    0.692589165829385536E+02   -0.578948601799157636E+00    0.885694904526260984E+00    0.290558717379205689E-01    0.118772314457433126E+01    0.371924957561970970E-01    0.117653975348704343E+01   -0.955845009805568857E+00    0.210193445885487051E-02   -0.529865876484052137E+03
    0.909387631892099790E+02   -0.393798754845998467E+00   -0.288196674273116571E+00    0.104331164431334500E+00    0.167178234754188360E-01   -0.577672131125590127E+00   -0.883995757522332726E+00    0.115152222356466494E+01    0.154497029973632571E-02   -0.529663209897150750E+03
    0.744994348214708282E+02   -0.305599027800092848E+00   -0.557871574698054928E+00    0.505098308759912129E+00    0.665459207970453548E-02   -0.160468006156088805E+00   -0.143484125166432941E+01    0.628912596666026946E+00    0.189608100901672572E-02   -0.529646360993978760E+03
    0.666669086762267113E+02   -0.400711976827149208E+00    0.305800621166447684E-01   -0.236601049085081172E-01    0.150230887017964232E+01    0.960871127142821635E-01    0.165596381489487987E+01    0.128486154613546688E+01    0.223327322159150299E-02   -0.529520848170250474E+03
    0.777241097711208653E+02   -0.207179174400470067E+00   -0.510563009510216048E+00    0.202065034888896378E-01    0.177529045522176165E+01   -0.280577512020621755E+00   -0.123111860319046018E+01    0.307256922608564853E+00    0.263498377702209297E-02   -0.529466306203978888E+03
    0.721209327135501610E+02   -0.562915048999008683E+00    0.903469386451389411E+00    0.135804306007116793E-01    0.145194207147318721E+01   -0.729320660640455642E-01    0.362567592997976806E+00    0.187793572115037577E+01    0.351172536207267072E-02   -0.529444587977897868E+03
    0.670271958151676017E+02   -0.334518055500824474E+00   -0.300136987798184762E+00    0.109302293528138250E+00    0.388033872396908563E+00    0.645899817989179503E-01   -0.146894655802050300E+01   -0.994081610002131022E-01    0.974236062744271436E-03   -0.529248738798830800E+03
    0.839868259943912960E+02   -0.525178653096702863E+00    0.811490473256498035E+00   -0.139449809474916364E+00    0.183081051445613596E+00   -0.411941576824221389E+00   -0.781786840461173860E+00   -0.102433354236036900E+01    0.735279371564034889E-03   -0.528967195087260961E+03
    0.894534244294159748E+02   -0.521386413830562834E+00    0.483820532674901216E+00    0.976096201904006477E-01    0.551551376637450019E+00   -0.528418415097495320E+00   -0.432359766416665625E-01    0.202357342258578043E+00    0.155632364738367279E-02   -0.528893805825412869E+03
    0.959925852465740093E+02   -0.575172510775540768E+00    0.734872151595094891E+00    0.584785705902550745E-01    0.144940282024858202E+00   -0.682851922194173788E+00    0.324879478831866741E+00    0.196705118580642191E+01    0.312012805212935618E-02   -0.528771610092037236E+03
    0.895419990773780512E+02   -0.530486111244090175E+00    0.740887427489141714E+00   -0.493577427549858783E+00    0.615013249282418961E-01   -0.544971953059440573E+00    0.338486147990487485E+00    0.112343201113588842E+01    0.323675376027399153E-03   -0.528654343955899208E+03
    0.751401695872068416E+02   -0.235121589621649640E+00   -0.433330135937444183E+00   -0.909699419438503298E-02    0.123055515411216021E+01   -0.200194460598925428E+00    0.389677931772316466E+00    0.533831236945922161E+00    0.162095324789990336E-02   -0.528597923625563908E+03
    0.626937663913566041E+02   -0.390111523930838366E+00    0.141436766295834460E+00    0.638676058126446122E-01    0.125346702691328415E+01    0.214047436701781724E+00   -0.762691351424495956E-01    0.827725919623667483E+00    0.137577170594749276E-02   -0.528594453582822098E+03
    0.955628995410965700E+02   -0.295834234431189280E+00   -0.377823234118729090E+00    0.257804502985514716E-01    0.330529809619023673E+00   -0.717057609236279481E+00   -0.922298092862270824E+00   -0.851031675628595830E+00    0.586507125477142566E-03   -0.528589904405954258E+03
    0.646079484147459624E+02   -0.399771555907448839E+00    0.272293808815966543E-01   -0.863830961235940720E-01    0.175924921832781411E+00    0.143275537200338920E+00   -0.472028291531990218E+00    0.163528482409442200E+01    0.252221797151097604E-02   -0.528569801008239210E+03
    0.858529402767930634E+02   -0.301931440653425920E+00   -0.141236208941807106E+00   -0.449395654622897212E-02   -0.528952515503483545E+00   -0.493518395803189902E+00   -0.894113805295823294E+00    0.154034586104704108E+00    0.236935038164709511E-02   -0.528539747861360411E+03
    0.832544673218352784E+02   -0.327499035046027842E+00   -0.379167448741970503E-01   -0.697854915439641843E-01    0.541018721603685471E+00   -0.419799348671980876E+00   -0.649440566368693073E-01    0.843789068455450764E+00    0.873906360013165795E-03   -0.528304623994189797E+03
    0.666600626575975070E+02   -0.247791234869057853E+00   -0.428621496671725666E+00   -0.398485899760920859E-01    0.243051893198823699E+00    0.591487533802386167E-01    0.789604836033892088E+00   -0.628869077435654233E+00    0.981344810192963379E-03   -0.528128051729508115E+03
    0.968304512453659072E+02   -0.284664429185438994E+00   -0.362131370925721896E+00    0.103666557830415229E-01   -0.119771781489559470E+01   -0.740754429619691068E+00   -0.131738204055391295E+01    0.885193184375492326E+00    0.254342306691546227E-02   -0.528059356980138773E+03
    0.734124149846118428E+02   -0.573008341218930184E+00    0.891520423320983468E+00   -0.386633418798965067E-02    0.108781009242208215E+01   -0.955118410451376576E-01    0.111048213849656019E+00   -0.369389021357413139E+00    0.319439543970001516E-02   -0.528055500892605778E+03
    0.745377037424135835E+02   -0.314961943891191254E+00   -0.411145805762084038E+00    0.190943483136170045E+00    0.222921021607727532E+00   -0.160585371368498375E+00    0.798930000891813208E-01    0.874102559872111939E-01    0.611807570292111080E-03   -0.528028549559374028E+03
    0.817016822255338582E+02   -0.585422243961356337E+00    0.953346290443693789E+00   -0.311273249286839970E+00    0.216222961137013669E-01   -0.336575142563046548E+00    0.101536038786178739E+01    0.121201256939160551E+01    0.136816882598922440E-02   -0.527995809659219276E+03
    0.844050017798068382E+02   -0.339593975862826802E+00   -0.366808219687520420E+00   -0.177527602852876498E+00    0.244750601122314393E-01   -0.429586467542874884E+00   -0.114852141486884474E+01   -0.186835441186422768E+01    0.257012672799761255E-02   -0.527952351236659297E+03
    0.847209806856925383E+02   -0.522952607316667706E+00    0.568682506454614156E+00    0.504533739452419638E-01    0.775816073507724191E+00   -0.419620405208733116E+00    0.162403821914670266E+01   -0.137332715729139254E+01    0.519198807497067705E-03   -0.527815785159983079E+03
    0.597810724011193670E+02   -0.384124283182938342E+00    0.103598983595222904E+00   -0.278713955828244764E-01    0.183673574949797214E+01    0.318915057967342985E+00    0.209519906634493047E+00    0.624573295539675222E+00    0.476426876235547248E-02   -0.527808260795409296E+03
    0.907127390155811497E+02   -0.416328270498065312E+00    0.381894556193360657E+00   -0.236036291902252060E+00    0.315248177304172650E-01   -0.591939924434652154E+00    0.723519461325039970E+00    0.778362667438224243E+00    0.226350156884058684E-02   -0.527785123466877735E+03
    0.920141924530656183E+02   -0.402114704339852302E+00   -0.137405783238179424E+00    0.166377565337949562E-01    0.163833244219448604E+01   -0.607336698934378028E+00   -0.127419055902684430E-01   -0.871912162557388459E+00    0.718858168493596850E-03   -0.527753329829020004E+03
    0.756648296634082556E+02   -0.518810070303529436E+00    0.552043859287572047E+00    0.250499274167523822E-01    0.115193926203858599E+01   -0.178070408739607222E+00   -0.137303665017960674E+01    0.642936233585704731E+00    0.202310519684933965E-02   -0.527732542580063296E+03
    0.891462755509605813E+02   -0.409588847682485824E+00    0.355368750411813039E+00    0.132043186332957418E-01    0.545163123718214848E+00   -0.559972947471347293E+00   -0.111471120082382358E+01   -0.194423115456093543E+01    0.315958197438348520E-03   -0.527692557829563157E+03
    0.867778070323141009E+02   -0.397873895427661495E+00    0.161371348276640347E+00   -0.177556676347396802E-01   -0.978603118846547604E+00   -0.492596383118454328E+00    0.807599687367916985E+00    0.326846664663859698E+00    0.806123050631324389E-03   -0.527650793131049795E+03
    0.710189709478979410E+02   -0.504000354950358442E+00    0.495067444101625398E+00   -0.293472232487488327E-01    0.111466647803949614E+01   -0.462224469684480166E-01   -0.105029747235542770E+01    0.140199334836538547E+01    0.101774449421720981E-02   -0.527633342731880703E+03
    0.579393371065752376E+02   -0.316764461122073016E+00   -0.302927848125563060E+00    0.584806844983361884E+00    0.996088403640214004E-01    0.390755224357429931E+00    0.101434390230549631E+01   -0.117688702677559753E+01    0.264374596543892615E-02   -0.527632772168679821E+03
    0.860084050187575713E+02   -0.399204049642240655E+00   -0.870200189310459393E-01    0.369797579297355128E-01    0.108671874069688190E+01   -0.464297463353310569E+00   -0.183080259204149609E+00    0.503450661989714110E+00    0.349350812387316800E-02   -0.527614942845949713E+03
    0.659672663298934197E+02   -0.284612142795327649E+00   -0.335847614173149012E+00   -0.336848614591858109E-01    0.142114238880210753E+01    0.889935150564289401E-01   -0.175705707716517967E+01   -0.275345419630486976E+00    0.756283265474166910E-03   -0.527583171303182098E+03
    0.850240286240124590E+02   -0.558786780960428775E+00    0.597381311423907491E+00    0.137780326382559437E+00    0.104445299612837772E+00   -0.406980756977861402E+00    0.200137801524911119E+00    0.536539213158534700E+00    0.166791991879811086E-02   -0.527522483175946377E+03
    0.850240286240124590E+02   -0.558786780960428775E+00    0.597381311423907491E+00    0.137780326382559437E+00    0.104445299612837772E+00   -0.406980756977861402E+00    0.200137801524911119E+00    0.536539213158534700E+00    0.166791991879811086E-02   -0.527522483175946377E+03
    0.825932664731940349E+02   -0.548011166659950977E+00    0.741245969528561588E+00    0.910734369658605658E-02   -0.164202699508183247E+01   -0.359174260342274065E+00   -0.675398666800456127E+00    0.915880199132534489E+00    0.408606179484505283E-02   -0.527467491907898193E+03
    0.588825483066467825E+02   -0.460931283157015148E+00    0.470964925303006154E+00   -0.365429052144676803E-01    0.189449328269649886E+01    0.351487725800406103E+00    0.538485465873505653E+00    0.126058506334722020E+01    0.159490487787472546E-02   -0.527393952710492272E+03
    0.512901957133106663E+02   -0.368883666401288224E+00    0.768504339336413267E-01   -0.139690414757112080E-01    0.182971667140777816E+01    0.648814201498218779E+00    0.163933156215154252E+01   -0.155922018111928340E+01    0.274890158816432084E-02   -0.527387641909024751E+03
    0.585669559019891111E+02   -0.343987356103996333E+00   -0.313636363521846206E+00    0.363648062772018221E+00    0.132079220256005492E+00    0.373775564529070792E+00   -0.417597176645339463E+00    0.873036415320674664E+00    0.110277886313037143E-02   -0.527386313572891140E+03
    0.612473083174286330E+02   -0.460993004233870352E+00    0.132226488679812348E+00   -0.524161504498437125E-01    0.267090832991136118E+00    0.284187749370258480E+00   -0.185184600091379759E+01    0.318371035561811677E+00    0.335465392419331820E-02   -0.527372196180586116E+03
    0.576807484550980973E+02   -0.358563128903821138E+00    0.540848878319302173E-01   -0.114904957370143279E-01    0.964742614877265314E+00    0.393301238069527770E+00   -0.114067184842809688E+01    0.163701868301914821E+01    0.303941534407092817E-02   -0.527350543831896402E+03
    0.576807484550980973E+02   -0.358563128903821138E+00    0.540848878319302173E-01   -0.114904957370143279E-01    0.964742614877265314E+00    0.393301238069527770E+00   -0.114067184842809688E+01    0.163701868301914821E+01    0.303941534407092817E-02   -0.527350543831896402E+03
    0.762925832925310203E+02   -0.474354078851410677E+00    0.529361507688221877E+00   -0.499068675289251473E-01    0.156395689608208599E+00   -0.198661183339026381E+00   -0.111309783516573679E+01   -0.453397094017033320E+00    0.144706707733055495E-02   -0.527272207196654904E+03
    0.762925832925310203E+02   -0.474354078851410677E+00    0.529361507688221877E+00   -0.499068675289251473E-01    0.156395689608208599E+00   -0.198661183339026381E+00   -0.111309783516573679E+01   -0.453397094017033320E+00    0.144706707733055495E-02   -0.527272207196654904E+03
    0.754255525118975214E+02   -0.420897021676518435E+00    0.217255545277840412E+00   -0.427880634898672341E+00    0.578125241001763435E-01   -0.188521523252270784E+00   -0.188059602197292453E+01   -0.567859952874530949E+00    0.935732851257586873E-03   -0.527223603961104800E+03
    0.937113156083864283E+02   -0.445454802907577108E+00    0.160866720872395064E+00   -0.193145209684502106E-01    0.174594609142841861E-01   -0.647996894386867250E+00    0.576646588432744522E+00   -0.163371986294959726E+01    0.383468841967049556E-02   -0.527212807096052302E+03
    0.877842748539922013E+02   -0.482896141444069560E+00    0.539575544166767784E+00   -0.105485484859975998E+00    0.636468565928969277E-01   -0.500372128256819648E+00   -0.111724121983397251E+01   -0.184938506320553309E-02    0.515178440417374262E-03   -0.527204361113471464E+03
    0.877842748539922013E+02   -0.482896141444069560E+00    0.539575544166767784E+00   -0.105485484859975998E+00    0.636468565928969277E-01   -0.500372128256819648E+00   -0.111724121983397251E+01   -0.184938506320553309E-02    0.515178440417374262E-03   -0.527204361113471464E+03
    0.588399327339121641E+02   -0.360309698792270261E+00   -0.156058710170391635E+00    0.560097831456971562E-01    0.196227802461863998E+00    0.346286899726093722E+00   -0.591405456709759969E+00    0.197448263608999142E-01    0.131473939127113582E-02   -0.527200649714281099E+03
    0.661757690679120287E+02   -0.359572707294764093E+00   -0.155044321931407936E+00   -0.429228657754361365E-01    0.172299392682899555E+01    0.949904045768095173E-01   -0.177429604185537415E+01    0.166234528753299093E+01    0.968221646228561994E-03   -0.527183191632570470E+03
    0.661757690679120287E+02   -0.359572707294764093E+00   -0.155044321931407936E+00   -0.429228657754361365E-01    0.172299392682899555E+01    0.949904045768095173E-01   -0.177429604185537415E+01    0.166234528753299093E+01    0.968221646228561994E-03   -0.527183191632570470E+03
    0.865426755053478871E+02   -0.572611159518003898E+00    0.885163341803753667E+00    0.301304913976601085E-01    0.707782818974239003E+00   -0.457408322032040626E+00   -0.216921847577542959E+00    0.155794148314064795E+01    0.292828818542401059E-02   -0.527152185163065838E+03
    0.865426755053478871E+02   -0.572611159518003898E+00    0.885163341803753667E+00    0.301304913976601085E-01    0.707782818974239003E+00   -0.457408322032040626E+00   -0.216921847577542959E+00    0.155794148314064795E+01    0.292828818542401059E-02   -0.527152185163065838E+03
    0.650819045427478358E+02   -0.343125308587024946E+00   -0.220570491660964763E+00    0.398801036228764616E+00    0.122464420622865777E+00    0.142960319898443267E+00   -0.108708328113047692E+01    0.403733048273418937E+00    0.218021593163220118E-02   -0.527132488891211892E+03
    0.824695299782273992E+02   -0.601659766702098420E+00    0.105756914121534251E+01    0.242935311610651183E+00    0.867522951512640361E-01   -0.353440041448316533E+00    0.326939312405943205E+00    0.176237374024458404E+01    0.257625616218892795E-02   -0.527129292694828791E+03
    0.577675970404272547E+02   -0.502460192644306414E+00    0.463386242295811712E+00   -0.878411395422418195E-02    0.386637785956560620E-01    0.404739700592030793E+00   -0.574163197868178266E+00   -0.124515131420189262E+01    0.199842585379705895E-02   -0.527013987371224175E+03
    0.868429164387937078E+02   -0.414048764785295731E+00    0.207307404390718375E+00    0.127893651041922851E+00    0.381307121945043015E+00   -0.486359536579673790E+00   -0.138294419051284279E+01   -0.138642510357408932E+00    0.963783450159017008E-03   -0.526991000949124896E+03
    0.609057287555253168E+02   -0.468781020885228106E+00    0.321945024679573422E+00    0.886562032390791899E-02    0.105043776375158071E+01    0.296721542370609548E+00   -0.179953412358088372E+00   -0.131118491437537821E+01    0.390235966905416731E-02   -0.526979717330306130E+03
    0.644669404763227618E+02   -0.461801812138697532E+00    0.427204933378906304E+00   -0.997797362366270590E-02    0.191212631526535493E+01    0.154009972610737123E+00    0.899738555058655187E+00    0.116518476262925397E+01    0.179655684025248341E-02   -0.526910942938235166E+03
    0.829651562047999107E+02   -0.528584523515151172E+00    0.536987742619603026E+00   -0.663788588571385674E-01    0.792112330092917816E-01   -0.372096616509759670E+00   -0.897231896079958569E+00    0.139468363688890928E+00    0.136639085738532451E-02   -0.526869810674302016E+03
    0.829651562047999107E+02   -0.528584523515151172E+00    0.536987742619603026E+00   -0.663788588571385674E-01    0.792112330092917816E-01   -0.372096616509759670E+00   -0.897231896079958569E+00    0.139468363688890928E+00    0.136639085738532451E-02   -0.526869810674302016E+03
    0.860201048098302294E+02   -0.466567813187890312E+00    0.194174063901996874E+00    0.673081359019516157E-01    0.114753563777076462E+00   -0.452015981204001216E+00    0.573773489641152157E+00   -0.152737104556394110E+01    0.378130015217359450E-02   -0.526865818437057328E+03
    0.608636116632785757E+02   -0.386816176934051015E+00   -0.261277882033486009E-01   -0.221803591027143199E-01    0.143878840538252506E+01    0.274486106375860572E+00   -0.136318681017991050E+00   -0.618481069386063398E+00    0.548764648776733921E-03   -0.526782674640900382E+03
    0.855476819592398954E+02   -0.541583776235252223E+00    0.676137998023705222E+00   -0.205278303778786864E+00    0.315360138139788582E-01   -0.439153885804991262E+00    0.295983335109930135E+00   -0.391860930731426249E+00    0.118258968632400929E-02   -0.526700564611159052E+03
    0.803581758462943583E+02   -0.411892489622514013E+00    0.310627343316161486E+00    0.310651113627569586E+00    0.106843688424571592E+00   -0.319151101805581261E+00   -0.708405561960814056E+00   -0.504757405554544514E+00    0.315454837641904184E-02   -0.526658165872827908E+03
    0.742570014857880807E+02   -0.396387697162768671E+00    0.154884067520766777E+00    0.781501570075313623E-01    0.270723858319703137E+00   -0.145151334572691137E+00   -0.182950203152158020E+01    0.116129875812985039E+01    0.341596192862603232E-02   -0.526632831236537641E+03
    0.850175514736698119E+02   -0.414451114121151321E+00    0.254495810791848243E+00    0.202791849049255291E-02   -0.157984668749520374E+01   -0.452848687757704482E+00    0.869272886710431791E+00    0.926383438090311984E+00    0.199593364164307729E-03   -0.526627535297622671E+03
    0.876392334232111523E+02   -0.367740016339786813E+00   -0.190955618642931313E+00   -0.125736112096248576E-01    0.233326884421078518E+00   -0.505817149014186729E+00   -0.186389351078149268E+01   -0.297195411060521053E+00    0.838192378951552186E-03   -0.526593270009128901E+03
    0.876392334232111523E+02   -0.367740016339786813E+00   -0.190955618642931313E+00   -0.125736112096248576E-01    0.233326884421078518E+00   -0.505817149014186729E+00   -0.186389351078149268E+01   -0.297195411060521053E+00    0.838192378951552186E-03   -0.526593270009128901E+03
    0.884069826334913671E+02   -0.353595991898467243E+00   -0.234092502030597061E+00   -0.135421747179961471E+00    0.577731134485226505E-03   -0.525684387726359503E+00   -0.183164470868132612E+01   -0.712837082605331185E+00    0.212612169455717037E-02   -0.526581198911110619E+03
    0.884069826334913671E+02   -0.353595991898467243E+00   -0.234092502030597061E+00   -0.135421747179961471E+00    0.577731134485226505E-03   -0.525684387726359503E+00   -0.183164470868132612E+01   -0.712837082605331185E+00    0.212612169455717037E-02   -0.526581198911110619E+03
    0.925833765045479993E+02   -0.444269317504883077E+00    0.177245924919937181E+00    0.575100098289258455E+00    0.542934750116375042E-01   -0.608521743897803002E+00    0.868233681409590119E+00   -0.116980922285393785E+01    0.291705754668147854E-02   -0.526554158336426099E+03
    0.925833765045479993E+02   -0.444269317504883077E+00    0.177245924919937181E+00    0.575100098289258455E+00    0.542934750116375042E-01   -0.608521743897803002E+00    0.868233681409590119E+00   -0.116980922285393785E+01    0.291705754668147854E-02   -0.526554158336426099E+03
    0.751135899231073552E+02   -0.312124563979887526E+00   -0.290631444794316351E+00    0.816398247168947933E-02    0.109654712429379186E+01   -0.182863308850178985E+00   -0.355264326690661658E+00    0.184064061919024358E+01    0.422527594593047340E-03   -0.526541222516094081E+03
    0.751135899231073552E+02   -0.312124563979887526E+00   -0.290631444794316351E+00    0.816398247168947933E-02    0.109654712429379186E+01   -0.182863308850178985E+00   -0.355264326690661658E+00    0.184064061919024358E+01    0.422527594593047340E-03   -0.526541222516094081E+03
    0.633015107382010029E+02   -0.292864920670121709E+00   -0.302388542691486961E+00    0.170283371003737471E+00    0.113038393965800399E+00    0.185433307853008156E+00    0.870313195104760240E+00   -0.423391857046723885E+00    0.848891587364786204E-03   -0.526506710513158623E+03
    0.903887848531801694E+02   -0.436554171389632373E+00    0.157279473167566408E+00    0.419429369253556672E-01    0.265362807073143081E+00   -0.560266645901590588E+00   -0.113837992092640006E+01   -0.134499391747827035E+01    0.173322140256515489E-02   -0.526492186716350943E+03
    0.903887848531801694E+02   -0.436554171389632373E+00    0.157279473167566408E+00    0.419429369253556672E-01    0.265362807073143081E+00   -0.560266645901590588E+00   -0.113837992092640006E+01   -0.134499391747827035E+01    0.173322140256515489E-02   -0.526492186716350943E+03
    0.963823200403065812E+02   -0.467883461965104885E+00    0.305265427267652711E+00   -0.572183436295627956E-01    0.328169325727849515E+00   -0.709652759577201087E+00    0.169292833645548901E+01    0.634446310417919879E+00    0.294578835135173023E-03   -0.526471016546632654E+03
    0.963823200403065812E+02   -0.467883461965104885E+00    0.305265427267652711E+00   -0.572183436295627956E-01    0.328169325727849515E+00   -0.709652759577201087E+00    0.169292833645548901E+01    0.634446310417919879E+00    0.294578835135173023E-03   -0.526471016546632654E+03
    0.739996268169653462E+02   -0.381375250259623488E+00    0.748899384994583528E-01    0.675478897170851411E-01    0.342338406527344929E+00   -0.152185687678136006E+00    0.700755133151062637E+00   -0.528235397563763920E+00    0.155941510326917943E-02   -0.526457374047586768E+03
    0.656589177161744004E+02   -0.429215145140818155E+00    0.317471056351408265E+00    0.580809829080870088E+00    0.269154076864985825E-02    0.121783859588051602E+00    0.213299400354363566E+00   -0.261720279404455969E-01    0.300685228566899276E-02   -0.526439421051435829E+03
    0.928276107758379965E+02   -0.436471940239068434E+00    0.826520933546071035E-01    0.188146493450354058E-01    0.611139926678795131E+00   -0.624449918748438249E+00    0.178830167211520896E+01   -0.803826781650496258E+00    0.250000353154300470E-02   -0.526433402174845469E+03
    0.928276107758379965E+02   -0.436471940239068434E+00    0.826520933546071035E-01    0.188146493450354058E-01    0.611139926678795131E+00   -0.624449918748438249E+00    0.178830167211520896E+01   -0.803826781650496258E+00    0.250000353154300470E-02   -0.526433402174845469E+03
    0.505926195657324342E+02   -0.476445305634903615E+00    0.488722033820913282E+00   -0.252932926657329915E-01    0.118876985471221053E+01    0.684297097662167175E+00   -0.438051291488801731E+00   -0.171501446342949171E+00    0.273287608690631068E-02   -0.526412462374486722E+03
    0.505926195657324342E+02   -0.476445305634903615E+00    0.488722033820913282E+00   -0.252932926657329915E-01    0.118876985471221053E+01    0.684297097662167175E+00   -0.438051291488801731E+00   -0.171501446342949171E+00    0.273287608690631068E-02   -0.526412462374486722E+03
    0.723394141079723880E+02   -0.391073693587313809E+00   -0.106063696942303665E+00   -0.203563633412411349E-01    0.317835794593026577E+00   -0.888733129603429539E-01    0.102632360304028181E+01    0.176570892115837097E+00    0.184762961891982158E-02   -0.526381253046551478E+03
    0.723394141079723880E+02   -0.391073693587313809E+00   -0.106063696942303665E+00   -0.203563633412411349E-01    0.317835794593026577E+00   -0.888733129603429539E-01    0.102632360304028181E+01    0.176570892115837097E+00    0.184762961891982158E-02   -0.526381253046551478E+03
    0.716058310183258726E+02   -0.465992644557486013E+00    0.281354466500632228E+00   -0.340264223941506572E-01    0.107406859782620190E+01   -0.571999660421789180E-01   -0.351367618469228926E+00    0.115117698158060522E+01    0.204488603549446424E-02   -0.526364055633130533E+03
    0.716058310183258726E+02   -0.465992644557486013E+00    0.281354466500632228E+00   -0.340264223941506572E-01    0.107406859782620190E+01   -0.571999660421789180E-01   -0.351367618469228926E+00    0.115117698158060522E+01    0.204488603549446424E-02   -0.526364055633130533E+03
    0.622491240411068816E+02   -0.411111567446441395E+00    0.361679267146204353E-01    0.489870893109900507E+00    0.227110782794563981E-01    0.230409285749528792E+00   -0.127834476244186335E+01    0.512089866337902766E+00    0.189715128453626924E-02   -0.526359188581045601E+03
    0.622491240411068816E+02   -0.411111567446441395E+00    0.361679267146204353E-01    0.489870893109900507E+00    0.227110782794563981E-01    0.230409285749528792E+00   -0.127834476244186335E+01    0.512089866337902766E+00    0.189715128453626924E-02   -0.526359188581045601E+03
    0.752577093713562988E+02   -0.506885457943905493E+00    0.432667359409567354E+00    0.117986488851123283E+00    0.410275379214217750E-01   -0.162659232976187340E+00   -0.808135160005922337E+00   -0.115158047767086158E+00    0.406514370372712541E-02   -0.526348664529417533E+03
    0.704412358802655660E+02   -0.426591557151179135E+00    0.670421885097205461E-02    0.250585260290776546E-01    0.456039399041868965E+00   -0.241485282648512545E-01    0.415353721464877257E+00    0.147706646129542785E+01    0.640221771215365720E-03   -0.526340406940974844E+03
    0.854398893457149171E+02   -0.424902918258918572E+00    0.323322231942864136E+00    0.641117358378576085E+00    0.625659988702724768E-01   -0.447615396314730685E+00   -0.125718605823926288E+01    0.108089462974140460E+00    0.382143599144768586E-02   -0.526333237087995599E+03
    0.854398893457149171E+02   -0.424902918258918572E+00    0.323322231942864136E+00    0.641117358378576085E+00    0.625659988702724768E-01   -0.447615396314730685E+00   -0.125718605823926288E+01    0.108089462974140460E+00    0.382143599144768586E-02   -0.526333237087995599E+03
    0.854089930462648965E+02   -0.476568707952859771E+00    0.559113474228297491E+00    0.859719009105823773E-01    0.973683124618909268E-01   -0.444986098080852654E+00   -0.828751705148888185E+00    0.118213164256802239E+01    0.412815163124724549E-02   -0.526327955824138144E+03
    0.879814105099114983E+02   -0.552249674854268235E+00    0.624560968858705934E+00    0.354210074702940858E-01    0.208156381392528900E+00   -0.490605257472347400E+00   -0.111345052270547296E+01    0.123012351831344668E+01    0.377301200466062525E-02   -0.526325016882305363E+03
    0.934672680477683855E+02   -0.449190948738939166E+00    0.283801180640288919E+00    0.499630118789688993E-01    0.211940776041388723E+00   -0.638485105353985283E+00    0.561569910557986329E+00   -0.110667721334125524E+01    0.422765511700462504E-02   -0.526319816719685605E+03
    0.657205740375077454E+02   -0.507036583631681914E+00    0.417475359158101966E+00    0.101025587906827141E+00    0.643514560372069333E-01    0.140959586424918015E+00    0.147201537118094672E+01   -0.458812326507274992E+00    0.105415284323306935E-02   -0.526276287979058452E+03
    0.687591441714106395E+02   -0.524177114593742832E+00    0.459459700450652875E+00    0.237497778351581701E+00    0.643539647116155855E-01    0.379085126999663125E-01   -0.470208701558203490E+00   -0.520716561967730973E+00    0.345244954604528864E-02   -0.526273669975051121E+03
    0.687591441714106395E+02   -0.524177114593742832E+00    0.459459700450652875E+00    0.237497778351581701E+00    0.643539647116155855E-01    0.379085126999663125E-01   -0.470208701558203490E+00   -0.520716561967730973E+00    0.345244954604528864E-02   -0.526273669975051121E+03
    0.898052700091739382E+02   -0.495457789714564445E+00    0.335109582693426944E+00    0.831713260771493879E-02    0.130175398664199493E+01   -0.541946413598381582E+00   -0.536319973125022997E+00    0.168488923111704381E+01    0.274653451478812372E-02   -0.526273452407832451E+03
    0.845070436130777694E+02   -0.581158928993408264E+00    0.838436577571126662E+00    0.361061880805724655E+00    0.106982694063138428E+00   -0.396185596988674504E+00   -0.939299083604819174E+00   -0.122210794108676302E+01    0.335322595638576360E-02   -0.526224910373950252E+03
    0.845070436130777694E+02   -0.581158928993408264E+00    0.838436577571126662E+00    0.361061880805724655E+00    0.106982694063138428E+00   -0.396185596988674504E+00   -0.939299083604819174E+00   -0.122210794108676302E+01    0.335322595638576360E-02   -0.526224910373950252E+03
    0.810903333125653489E+02   -0.357180185225646873E+00   -0.114870688968176538E+00    0.411621067936483342E+00    0.137178180377309111E+00   -0.343867638590753977E+00    0.103154553868482424E+01   -0.751664358467720728E+00    0.640840330560887850E-03   -0.526205684914476251E+03
    0.534427401745726343E+02   -0.428720236331408877E+00    0.202179397786499848E+00    0.190468570266666859E+00    0.209185842094882002E+00    0.566560545819053907E+00   -0.750742428638499160E+00    0.214093819888657499E+00    0.383339508987812216E-02   -0.526157429589304343E+03
    0.534427401745726343E+02   -0.428720236331408877E+00    0.202179397786499848E+00    0.190468570266666859E+00    0.209185842094882002E+00    0.566560545819053907E+00   -0.750742428638499160E+00    0.214093819888657499E+00    0.383339508987812216E-02   -0.526157429589304343E+03
    0.952032707026084779E+02   -0.493358985810993911E+00    0.674776933220417874E+00   -0.983862203472796182E-03   -0.474399828349137742E+00   -0.685490675222852897E+00    0.883396881890536445E+00    0.890967257301299664E+00    0.170186457601362306E-03   -0.526155808537606617E+03
    0.952032707026084779E+02   -0.493358985810993911E+00    0.674776933220417874E+00   -0.983862203472796182E-03   -0.474399828349137742E+00   -0.685490675222852897E+00    0.883396881890536445E+00    0.890967257301299664E+00    0.170186457601362306E-03   -0.526155808537606617E+03
    0.577290904124684445E+02   -0.369785089506819098E+00   -0.790668021909013419E-01    0.486332455572711098E+00    0.994569826905897791E-01    0.404901767147412883E+00   -0.242776738099227618E+00   -0.903046504039305420E+00    0.261048844528799506E-02   -0.526146191385473230E+03
    0.577290904124684445E+02   -0.369785089506819098E+00   -0.790668021909013419E-01    0.486332455572711098E+00    0.994569826905897791E-01    0.404901767147412883E+00   -0.242776738099227618E+00   -0.903046504039305420E+00    0.261048844528799506E-02   -0.526146191385473230E+03
    0.603321073496858844E+02   -0.332534886112927808E+00   -0.128789169537942172E+00    0.808023435948381774E+00    0.897787821475195535E-01    0.292620491974064922E+00   -0.418647958992129032E+00    0.191620277250476123E+01    0.110263571673363536E-02   -0.526145388969733176E+03
    0.634266790056389738E+02   -0.545594320737582184E+00    0.664118895634588924E+00    0.289765816697038048E+00    0.250797419057482429E-01    0.217892805888138863E+00    0.138357200063464880E+01   -0.113079833175936506E+01    0.258802317832373951E-02   -0.526121024345813794E+03
    0.825360120350512574E+02   -0.463944640044656520E+00    0.198352652442920885E+00    0.669387922000552749E-03    0.142763024531254690E+01   -0.361770607043877312E+00   -0.453513790046719878E+00    0.538313380427350996E+00    0.485695794026108629E-02   -0.526120217137937743E+03
    0.631284113404369265E+02   -0.414027666431854513E+00    0.497064066106212010E-01    0.242964461891608252E+00    0.191585095866953381E+00    0.209079315522126663E+00   -0.398375417383387109E+00    0.712364948401668308E+00    0.354747700867519278E-02   -0.526081872312499513E+03
    0.595463871514547236E+02   -0.381611555907607425E+00   -0.660339808064271949E-01    0.730809379621177868E-01    0.424820868426489362E+00    0.334126120143483973E+00   -0.351070238488198072E+00    0.288683743086610267E+00    0.484210917068783608E-02   -0.526073827364843169E+03
    0.983578601780946968E+02   -0.527254429652977752E+00    0.627019752276874343E+00   -0.492675696386513096E-02    0.306555490197028213E+00   -0.737332422377598773E+00   -0.177842459539576025E+01   -0.799398803665620772E-01    0.242529349891862367E-02   -0.526065898076328949E+03
    0.983578601780946968E+02   -0.527254429652977752E+00    0.627019752276874343E+00   -0.492675696386513096E-02    0.306555490197028213E+00   -0.737332422377598773E+00   -0.177842459539576025E+01   -0.799398803665620772E-01    0.242529349891862367E-02   -0.526065898076328949E+03
    0.591926507580148211E+02   -0.505089638749424807E+00    0.361158452147449793E+00    0.166434127299355694E+00    0.410211144591094978E-01    0.365331977865976043E+00   -0.879091787186658813E-02   -0.809282211184338518E+00    0.287480148703789240E-02   -0.526050493352729745E+03
    0.802445475906854853E+02   -0.463956915769042411E+00    0.261827508368206452E+00    0.585557170207131605E-01    0.456393847530422558E+00   -0.306713934195190330E+00    0.113371102764368104E+01    0.962229695447093025E+00    0.461442411243906392E-03   -0.526043634789735734E+03
    0.899238643161585571E+02   -0.414859639273967851E+00    0.365928772915573575E-01    0.424031028622273709E-01    0.546668612885445881E-01   -0.558911641023251748E+00    0.173366717445497720E+01   -0.651902661082208734E-01    0.278984346117883142E-02   -0.526035222489829152E+03
    0.899238643161585571E+02   -0.414859639273967851E+00    0.365928772915573575E-01    0.424031028622273709E-01    0.546668612885445881E-01   -0.558911641023251748E+00    0.173366717445497720E+01   -0.651902661082208734E-01    0.278984346117883142E-02   -0.526035222489829152E+03
    0.757129398902846447E+02   -0.501047222540641712E+00    0.403118382737467584E+00    0.662558833843345241E-01    0.266692336670997676E+00   -0.167792519667406825E+00    0.952046497747260467E+00    0.180682739698502326E+01    0.103196365483149144E-02   -0.526005977316642884E+03
    0.697671088397783734E+02   -0.462701431392033236E+00    0.113747916126227366E+00    0.564300901293556478E+00    0.990406423740504138E-01    0.109979976583316486E-01    0.161657359171092629E+01   -0.254188585984058690E+00    0.145328785754328393E-02   -0.525997362357769589E+03
    0.688308083280898728E+02   -0.395195293033702821E+00    0.111196152965087336E+00    0.115864684284051833E+00    0.326509665929958004E+00    0.157232299344998161E-01   -0.726609618738955909E+00    0.113986877764392958E+01    0.188462473316830526E-03   -0.525989258893560191E+03
    0.792102640978018258E+02   -0.394367326600089552E+00    0.660975466429647440E-02   -0.149449194811523967E-01    0.193153160514053379E+01   -0.284455285147545034E+00   -0.983068172216881919E+00    0.602220890200919623E+00    0.271874379975511893E-02   -0.525974166966773737E+03
    0.792102640978018258E+02   -0.394367326600089552E+00    0.660975466429647440E-02   -0.149449194811523967E-01    0.193153160514053379E+01   -0.284455285147545034E+00   -0.983068172216881919E+00    0.602220890200919623E+00    0.271874379975511893E-02   -0.525974166966773737E+03
    0.853611657048568730E+02   -0.464666653026360343E+00    0.396435974288621651E+00   -0.267805940550829291E-01    0.155164331174251391E+01   -0.449729150265532951E+00    0.629624487132138810E-01    0.105053473446678458E+01    0.175710737956369378E-02   -0.525934783142202832E+03
    0.853611657048568730E+02   -0.464666653026360343E+00    0.396435974288621651E+00   -0.267805940550829291E-01    0.155164331174251391E+01   -0.449729150265532951E+00    0.629624487132138810E-01    0.105053473446678458E+01    0.175710737956369378E-02   -0.525934783142202832E+03
    0.588336105823589079E+02   -0.460651045165550332E+00    0.474847078379710297E+00   -0.130052255685733087E-01    0.779441366668947921E+00    0.356224974759518531E+00   -0.947176350109626197E+00    0.893611309646027419E+00    0.192373329096651169E-02   -0.525921374753275586E+03
    0.588336105823589079E+02   -0.460651045165550332E+00    0.474847078379710297E+00   -0.130052255685733087E-01    0.779441366668947921E+00    0.356224974759518531E+00   -0.947176350109626197E+00    0.893611309646027419E+00    0.192373329096651169E-02   -0.525921374753275586E+03
    0.963082678532948080E+02   -0.473189308837136835E+00    0.480464685769456779E+00    0.262459460209996109E-01    0.123413633923243982E+01   -0.704726302983226027E+00   -0.113021903978918425E+01    0.411284478472265569E+00    0.331693853043302234E-02   -0.525903429390506290E+03
    0.612800952467856490E+02   -0.383142140676860699E+00   -0.176023122438285995E+00    0.235725534183828245E+00    0.664831351870516229E-01    0.273363980044973864E+00    0.190781196035859635E+01   -0.192143054956424542E+01    0.679292762278960183E-03   -0.525882007632162185E+03
    0.612800952467856490E+02   -0.383142140676860699E+00   -0.176023122438285995E+00    0.235725534183828245E+00    0.664831351870516229E-01    0.273363980044973864E+00    0.190781196035859635E+01   -0.192143054956424542E+01    0.679292762278960183E-03   -0.525882007632162185E+03
    0.984919676634422103E+02   -0.449010174800118733E+00    0.155795646514715003E+00    0.200073996220098138E+00    0.202773830600253113E+00   -0.746698782050580157E+00   -0.128132683342477049E+01    0.149948702548553481E+01    0.674866741760871136E-03   -0.525877080533369508E+03
    0.984919676634422103E+02   -0.449010174800118733E+00    0.155795646514715003E+00    0.200073996220098138E+00    0.202773830600253113E+00   -0.746698782050580157E+00   -0.128132683342477049E+01    0.149948702548553481E+01    0.674866741760871136E-03   -0.525877080533369508E+03
    0.876360733834706593E+02   -0.470573987116793102E+00    0.525381826163055621E+00    0.687872843331245321E-01    0.232522994058471433E+00   -0.504189062615710615E+00    0.627550794154802638E+00    0.111784069206308789E+01    0.151832229265425056E-02   -0.525870274045643782E+03
    0.876360733834706593E+02   -0.470573987116793102E+00    0.525381826163055621E+00    0.687872843331245321E-01    0.232522994058471433E+00   -0.504189062615710615E+00    0.627550794154802638E+00    0.111784069206308789E+01    0.151832229265425056E-02   -0.525870274045643782E+03
    0.916179174078049527E+02   -0.411108175345908489E+00    0.228039034556415388E+00    0.261371442498216311E+00    0.848301708781908914E-01   -0.601678452956641019E+00   -0.135758266755807044E+01   -0.144796258486455631E+01    0.308795624022817350E-02   -0.525860790103437012E+03
    0.895091766250382790E+02   -0.529399604649401390E+00    0.621677948546619064E+00    0.774578109776768997E-03    0.824463657030112707E+00   -0.534818830630688469E+00    0.835554786172731045E+00    0.150976243264985666E+01    0.163772403696094138E-02   -0.525847272081091205E+03
    0.800857165298119611E+02   -0.446250507148566733E+00    0.286568634538976852E+00   -0.554669138747225787E-01    0.358468249054810340E+00   -0.311252388752985665E+00    0.458950572701163573E+00   -0.139128118415880841E+01    0.435552736258504325E-03   -0.525846914396199281E+03
    0.800857165298119611E+02   -0.446250507148566733E+00    0.286568634538976852E+00   -0.554669138747225787E-01    0.358468249054810340E+00   -0.311252388752985665E+00    0.458950572701163573E+00   -0.139128118415880841E+01    0.435552736258504325E-03   -0.525846914396199281E+03
    0.569330851379285861E+02   -0.456264998735356198E+00    0.247306894440960434E+00    0.944649056929751652E-01    0.144357429873376297E-01    0.442629220647476451E+00    0.444870600759112111E+00    0.195828018914041557E+00    0.162576302666650463E-02   -0.525839251694448308E+03
    0.614233004881200486E+02   -0.519105972371211699E+00    0.620930401688017497E+00    0.135760257780646043E-01    0.381886826200468654E+00    0.275222751591063020E+00    0.175617517669737211E-01   -0.945946638672183093E+00    0.625927314915397659E-03   -0.525827800438325312E+03
    0.619175750356095449E+02   -0.339180042905907975E+00   -0.785878613172616980E-01    0.884872430844669822E-01    0.257913906884835065E+00    0.234367461614782613E+00   -0.153736260214244957E+01    0.306473395550551864E+00    0.174222867651829816E-02   -0.525784341824142530E+03
    0.619175750356095449E+02   -0.339180042905907975E+00   -0.785878613172616980E-01    0.884872430844669822E-01    0.257913906884835065E+00    0.234367461614782613E+00   -0.153736260214244957E+01    0.306473395550551864E+00    0.174222867651829816E-02   -0.525784341824142530E+03
    0.813963849242972941E+02   -0.488156632753931508E+00    0.434269757912844057E+00   -0.249677117159627926E-01    0.476211175440677259E-01   -0.340119112105647048E+00    0.166743361244279154E+01   -0.877522337673583896E+00    0.114650120324411020E-03   -0.525779476500146529E+03
    0.624509441715450961E+02   -0.346796816955152298E+00   -0.226545729036846666E+00    0.158629425926177348E+00    0.130254774277050345E+00    0.221869709702118278E+00    0.327562633362993960E+00    0.773072195091866199E-01    0.973924506250112287E-03   -0.525754929247498922E+03
    0.834896162819414087E+02   -0.483812445424093518E+00    0.544571105507047903E+00    0.653376079445969538E+00    0.980729512514963986E-01   -0.396440590096818424E+00   -0.133693567760763643E+01    0.182261036712268210E+01    0.192623869384056512E-02   -0.525736455979636276E+03
    0.595600805656846504E+02   -0.350762786277050154E+00   -0.104552859310439672E+00    0.594570625147884613E+00    0.762867861495282185E-01    0.326757145677936123E+00   -0.104355529061546348E+01    0.143846702383613856E+01    0.454718273637588766E-02   -0.525717994889702140E+03
    0.846204882797547384E+02   -0.404240295626802748E+00    0.237253376054834320E+00    0.122715799047341534E-01    0.297617406814534746E+00   -0.436505185472040313E+00   -0.169687360447760183E+01    0.634877441305480072E+00    0.341557891206356601E-02   -0.525717802826671686E+03
    0.539949971890094105E+02   -0.344613682832558332E+00   -0.413282744832095261E-01    0.546875360000278476E+00    0.955798510920642386E-01    0.536553356224599209E+00   -0.761376784319606648E+00    0.124594294426112828E+01    0.216103172513770758E-02   -0.525712333614423187E+03
    0.526520507206817143E+02   -0.450768441275156917E+00    0.312680564179022014E+00   -0.246894019883594495E-01    0.137992191856354118E+01    0.604206494987698850E+00    0.109572442035236950E+01   -0.116921426353853297E+01    0.103810599782794277E-02   -0.525709692213809717E+03
    0.762427604241378987E+02   -0.387375096745004477E+00   -0.765557055525274421E-01    0.898323411950840978E-03    0.142041855837855557E-01   -0.205922421364152397E+00    0.157377378777875965E+01   -0.839687097587284992E+00    0.138079470044294439E-03   -0.525706218161259471E+03
    0.510072163575967323E+02   -0.429349899406063162E+00    0.157338263042156257E+00   -0.864152331354972603E-02    0.130916760247117736E+01    0.666365109912539832E+00    0.170262801351744342E+01   -0.162409775189011363E+01    0.162785572588663996E-02   -0.525705160972049498E+03
    0.510072163575967323E+02   -0.429349899406063162E+00    0.157338263042156257E+00   -0.864152331354972603E-02    0.130916760247117736E+01    0.666365109912539832E+00    0.170262801351744342E+01   -0.162409775189011363E+01    0.162785572588663996E-02   -0.525705160972049498E+03
    0.949000588932601943E+02   -0.435934856654681013E+00    0.225740580250295864E+00   -0.801204793418559547E-01    0.105232583910379152E+00   -0.675245628701056422E+00    0.156082595984781314E+01    0.694542523635359732E+00    0.135189466894991561E-02   -0.525685646121636978E+03
    0.789465643530683820E+02   -0.327816130176496578E+00   -0.258797904396262268E+00    0.471758576679082609E+00    0.236409669927963861E-01   -0.292518429086709997E+00    0.464279702437291331E+00    0.824460742137570701E+00    0.239974489534255930E-02   -0.525678732785774173E+03
    0.789465643530683820E+02   -0.327816130176496578E+00   -0.258797904396262268E+00    0.471758576679082609E+00    0.236409669927963861E-01   -0.292518429086709997E+00    0.464279702437291331E+00    0.824460742137570701E+00    0.239974489534255930E-02   -0.525678732785774173E+03
    0.548808847652831133E+02   -0.489953327162140795E+00    0.473417813475858651E+00    0.337464970376686324E-01    0.196195989013363548E+00    0.515076212230311192E+00    0.857576614293801942E+00    0.313950224605939798E+00    0.191526175012124433E-02   -0.525663556798978789E+03
    0.649880995065545193E+02   -0.402345423245475953E+00    0.114643533452905899E+00    0.881032978068816419E-01    0.263216498761751794E+00    0.136106913362356252E+00    0.727358706243145914E+00    0.884630751527546444E-01    0.416753992031004827E-03   -0.525654216159720932E+03
    0.628142959220410546E+02   -0.541420751798866728E+00    0.638283681324566032E+00    0.169693253576232550E+00    0.136282155356386880E+00    0.236271837044680133E+00    0.190100200853537116E+01   -0.400066597801472135E+00    0.200846271241927887E-02   -0.525638193942188991E+03
    0.921164442359623052E+02   -0.464972308318766903E+00    0.415686107149983997E+00    0.204714188412822296E-01    0.213313822567244404E+00   -0.615709143769371581E+00   -0.940407908948941440E+00   -0.194869561886098253E+01    0.143502832201614083E-02   -0.525625173950973135E+03
    0.942470243336831004E+02   -0.440761998500782237E+00    0.233450131263184701E+00   -0.153607977321275513E+00    0.401493627132718522E-01   -0.658174822549188576E+00   -0.629953938717745077E+00    0.116645353298240595E+01    0.381746586293618684E-02   -0.525618373890205703E+03
    0.663714487437560763E+02   -0.525240045964495028E+00    0.687696616029151997E+00    0.225308727905037642E+00    0.142628950090502915E+00    0.109225791722552756E+00    0.147526149986624588E+01   -0.416953875715708522E+00    0.157872145925619378E-02   -0.525612922611317799E+03
    0.512357744245242230E+02   -0.380882855328050773E+00    0.117948208756644135E-01    0.986289242745375105E-01    0.658154034687266076E-01    0.658107325301681811E+00   -0.569490073782004558E+00    0.167712450565779259E+01    0.816703810134100650E-03   -0.525606613937672932E+03
    0.835050114053963455E+02   -0.446164267027710171E+00    0.212367782534430560E+00   -0.112695304374543781E-01    0.728754645832087267E+00   -0.392754402176339390E+00   -0.113543182943995724E+01    0.106538539378454855E+01    0.176970387245400929E-03   -0.525599899577958013E+03
    0.624701244247426715E+02   -0.516797863842768823E+00    0.461264327818769360E+00    0.286839217088017406E+00    0.135109144072200316E+00    0.253678657831441612E+00    0.186729755205019021E+01   -0.183934143175217013E+01    0.119399894135119311E-02   -0.525589548930772139E+03
    0.898481495211048724E+02   -0.491170873006179232E+00    0.329728851828692271E+00    0.581713812691280197E-01    0.291422426560394854E+00   -0.542645529349611078E+00   -0.128814249370351552E+01    0.278513673105873494E-01    0.267131954888077949E-02   -0.525589292052369046E+03
    0.761936735412724886E+02   -0.394435675926955831E+00   -0.368127807740634694E-01    0.947160200795771345E-02    0.511036104215252696E+00   -0.200471999209641982E+00   -0.190210722239055419E+01    0.116040757640416903E+01    0.364557345163163404E-03   -0.525583596403718843E+03
    0.600496301982735687E+02   -0.476992648696972665E+00    0.357982229917315209E+00    0.309578057781171978E+00    0.476280876597874325E-01    0.317873244454740966E+00    0.526562689881672430E+00    0.143190792906546394E+01    0.149387800298850237E-02   -0.525571885338254106E+03
    0.869987878182725609E+02   -0.501450172202179356E+00    0.440173606171862630E+00    0.115517513282659579E+00    0.184445471505950032E+00   -0.478457057528553165E+00   -0.937380953322919153E+00    0.147858559929784894E+01    0.358656491293363189E-02   -0.525536248911639632E+03
    0.672326188239641453E+02   -0.328290165346899254E+00   -0.283279890624614339E+00    0.697311436359109749E+00    0.601896939414667820E-01    0.643413038583302566E-01    0.140784378607685978E+01    0.727555083418417237E+00    0.236755509386754603E-02   -0.525534104738820929E+03
    0.663835767444200826E+02   -0.517958334086001226E+00    0.586864287454453404E+00    0.481457962838209852E-01    0.237713897113113859E+00    0.114056323755622024E+00   -0.112320330769951604E+01   -0.195596789651419578E+01    0.106587704546878825E-02   -0.525532404668000027E+03
    0.984875403184360181E+02   -0.398151025188898444E+00    0.172165346063895441E+00   -0.188448829183016642E-01    0.170031437565502763E+00   -0.770318148133180891E+00   -0.129262757420771068E+01    0.152166282072493075E+01    0.182977429929720437E-02   -0.525518243850337967E+03
    0.767862055377215000E+02   -0.461414725530712833E+00    0.359317912397351336E+00   -0.179846832125267753E-01    0.691236882720509094E+00   -0.212860827436355482E+00    0.326140895641332751E+00   -0.909903682073263997E+00    0.764512283834672957E-03   -0.525504021602549074E+03
    0.857547079123735756E+02   -0.465991225080954585E+00    0.279379227690757403E+00    0.267900538046674797E-01    0.697346599440103354E+00   -0.451624974890213693E+00   -0.137512992654256916E+01    0.172953919523841648E+01    0.320853464931425414E-02   -0.525483901023933640E+03
    0.648988101374862083E+02   -0.524096021340220375E+00    0.573725389174576605E+00    0.722869685330515210E+00    0.464559362356626870E-01    0.171085891087721098E+00   -0.337369576701880280E+00    0.455050911984190787E+00    0.391636347310653221E-02   -0.525455560728824366E+03
    0.651588914506182419E+02   -0.453502510378277712E+00    0.115915132019104306E+00    0.508479451151560013E+00    0.987356607733027580E-01    0.149786657671564072E+00    0.695177797739760184E+00   -0.105588509312459777E-01    0.103223420647347019E-02   -0.525445611624301023E+03
    0.971479971183554198E+02   -0.469059561256798929E+00    0.461007458955592142E+00    0.122215620421590287E+00    0.230119169011302915E+00   -0.723232982890866793E+00   -0.562856197835202021E+00   -0.129804187110306390E+00    0.257682256102342855E-02   -0.525436902903043801E+03
    0.639322280043822957E+02   -0.437063954126526877E+00    0.287704382754336407E+00    0.395650337538127062E+00    0.130260470264993877E+00    0.178359983450491644E+00   -0.575809659843032895E+00    0.732955300186261205E+00    0.337354952900770222E-02   -0.525411939452128308E+03
    0.519463827125059296E+02   -0.392040478014952232E+00    0.100110957473338757E+00   -0.327964034166932095E-01    0.179948478011594304E+00    0.621567826750683672E+00    0.846524460572781301E+00   -0.174338347419793194E+01    0.202359436519561342E-02   -0.525404013614797123E+03
    0.857273726093992821E+02   -0.475965826428893291E+00    0.419148429123033850E+00    0.222697994350751216E+00    0.129291541526680653E+00   -0.447479318230797229E+00    0.186135035550177586E+01   -0.197008822017667007E+01    0.297065907346016900E-02   -0.525397505376773097E+03
    0.791024010387100844E+02   -0.429457823192289201E+00    0.105071053416413207E+00    0.114157582311024797E+00    0.346101835865608720E-01   -0.275867285105683813E+00    0.221912008601058641E+00    0.187690517212069619E+01    0.625382329108248314E-03   -0.525385210327088998E+03
    0.931674170388216396E+02   -0.424651086009390610E+00    0.270603927409764466E+00    0.410556733173091715E+00    0.119276686206609916E+00   -0.642306495648053311E+00   -0.578713719906238655E-01    0.445116157853926886E+00    0.380642355118920861E-02   -0.525372077451825930E+03
    0.534220565534265219E+02   -0.322724704364761195E+00   -0.164783303227263644E+00    0.431428365466997477E+00    0.154080776242349060E-01    0.551321894114340072E+00   -0.171514529015483874E+01    0.112699853860207977E+00    0.237106792127783628E-02   -0.525357493344022942E+03
    0.968804575002403396E+02   -0.423218574742781684E+00    0.104896420861726014E+00    0.129406804898348327E+00    0.254218844549404910E+00   -0.715883885394908770E+00   -0.165582884250727491E+01    0.925115143792920591E-01    0.231853008591542675E-02   -0.525355911100386493E+03
    0.762298519047425884E+02   -0.505543290572321169E+00    0.442419339973614711E+00    0.240595160312690126E+00    0.196159413405294636E-01   -0.187151477334013716E+00   -0.815316963242455728E+00    0.357460606298470651E+00    0.203419971358176355E-02   -0.525350874287206238E+03
    0.858785502919920418E+02   -0.480245503362290549E+00    0.437754370709917850E+00    0.578438596045556253E+00    0.596124559519504160E-01   -0.456415276841931838E+00   -0.542979114306026744E+00    0.958621065836676944E+00    0.544417760279802820E-02   -0.525347549597687930E+03
    0.718046974648818548E+02   -0.476452461292334206E+00    0.491546783829692302E+00    0.283117818916309716E-01    0.191606858082371545E+00   -0.710229135566045056E-01   -0.113586612662942921E+01   -0.145401802382329737E+01    0.802301804435190391E-03   -0.525332296794076342E+03
    0.771988958535901304E+02   -0.367174259748557219E+00   -0.594498530572273864E-02    0.135745043128421727E+00    0.956753493308282188E-02   -0.239920598100777926E+00    0.801115541802340569E+00   -0.513083520036566876E+00    0.735302625722189518E-03   -0.525317009103170790E+03
    0.955166272727371961E+02   -0.510762887964326673E+00    0.501567619134862142E+00    0.430878455576717556E-01    0.117318868015130917E+00   -0.678278825409368569E+00   -0.140238335392699209E+01    0.163312589296093336E+01    0.953587128446287124E-03   -0.525314546412703521E+03
    0.869952644691387604E+02   -0.342679432372606563E+00   -0.122751497697468182E+00    0.615138970099859961E+00    0.960044241909261409E-01   -0.499184725614973956E+00   -0.557647587599092054E+00    0.215806920057776797E+00    0.387243886275157045E-02   -0.525300498072324217E+03
    0.569680498823457242E+02   -0.348471742590540146E+00   -0.105601183169557800E+00    0.468810772894352468E+00    0.752737446749356387E-01    0.413651452174749856E+00   -0.116140769074312500E+01   -0.876293198380830862E-01    0.259246881720320843E-02   -0.525273722411277845E+03
    0.674409021778254782E+02   -0.441388506047143192E+00    0.187308386592114573E+00    0.226981136419741603E+00    0.148500460550922142E-01    0.642896505943566510E-01    0.337217652654526301E+00   -0.304241901691405969E+00    0.120324391529313957E-03   -0.525253923697306050E+03
    0.808268775247406381E+02   -0.528205313919047903E+00    0.600598282146959761E+00    0.399802515973044947E+00    0.123957586653861807E+00   -0.308581012629694174E+00    0.671857090745448637E+00   -0.128201138187411878E+01    0.162168643728533013E-02   -0.525203036578514684E+03
    0.850051977761198003E+02   -0.486777202336122983E+00    0.487136902343417333E+00    0.162609973040428457E-01    0.108785681725301231E+00   -0.434456215327246209E+00   -0.622748407958197747E+00    0.125562003859765969E+01    0.219813899477649954E-02   -0.525198628315159112E+03
    0.645494511139069402E+02   -0.386610923139337537E+00   -0.686278765214769493E-01    0.254690292846342814E+00    0.102236623955020089E+00    0.161671041595647935E+00    0.753968246625559502E+00    0.786486568198990987E+00    0.150768354446473296E-02   -0.525100923136783649E+03
    0.863163130945408739E+02   -0.465587081231138011E+00    0.294238890674158426E+00    0.724048806925640775E+00    0.669816661974569350E-01   -0.454200876885428206E+00   -0.774026341800523099E+00   -0.215164219896322395E+00    0.268244951668639153E-02   -0.525086703934033721E+03
    0.604799445868544865E+02   -0.467392540397513656E+00    0.336400610157848945E+00    0.476993588687669501E+00    0.115505688604480738E+00    0.314713771434627532E+00   -0.121876283219844606E+01    0.141854626661233851E+01    0.121908299102924111E-02   -0.525070649449705002E+03
    0.657401916994150071E+02   -0.390617324804328980E+00    0.347460824823979664E-01    0.426578034667029371E+00    0.473779790757400399E-01    0.117447162423262697E+00    0.191480115728971167E+01   -0.137202582374049298E+01    0.275691438393033117E-02   -0.525040523129643702E+03
    0.588023907648322464E+02   -0.404713377534716479E+00    0.103797177275652075E+00    0.266600370840739842E+00    0.485132438772368779E-01    0.362428934048553586E+00   -0.106945803294447983E+01   -0.121779686578953350E+01    0.414069425041407868E-03   -0.525008836064514867E+03
    0.650918021140384155E+02   -0.430038603153883425E+00    0.307061193001755939E+00    0.703175580037616044E+00    0.770714041015643225E-01    0.136955269196496587E+00   -0.388151685331543650E-01   -0.166242146718048911E+01    0.340831285386178351E-02   -0.525005478257924096E+03
    0.814886457895403709E+02   -0.527384385341325590E+00    0.628037180274020557E+00    0.102303516071789247E+01    0.827574208075025908E-01   -0.325656621100673505E+00    0.853611613797422564E-01   -0.586321288940549801E+00    0.108377415835092528E-02   -0.525002842844490260E+03
    0.612358887324940895E+02   -0.347885384293807665E+00   -0.953008826519816665E-01    0.591181207628249439E+00    0.472261967855862608E-01    0.265668864425331108E+00    0.979260272516673247E+00    0.297874518928275211E+00    0.962789738135683137E-03   -0.524971644752796692E+03
    0.633282542138595517E+02   -0.440512504428467011E+00    0.230807078352508910E+00    0.249698795931049489E+00    0.159594214731586526E-01    0.199362823788747701E+00   -0.217112112159623338E+00    0.119983483275356395E+01    0.314381929823692730E-02   -0.524971240712576332E+03
    0.869509671989905257E+02   -0.496424826160164923E+00    0.585821685345486287E+00    0.309401809334186595E+00    0.111629228059716645E+00   -0.478888824059035434E+00    0.408100822980576261E+00    0.590623621015746281E+00    0.602383829358510425E-03   -0.524965187956041291E+03
    0.825724399601925541E+02   -0.446667960768301064E+00    0.304289995133665059E+00    0.812305030247184590E-01    0.210068170348889360E-01   -0.372735872994093942E+00   -0.196432885514123434E+01   -0.463203853038537838E+00    0.300262336780954264E-02   -0.524964224231395860E+03
    0.944912626820839137E+02   -0.437021600781553055E+00    0.118808515434148276E+00    0.411428290997138291E+00    0.112642797229457692E+00   -0.662494914917062472E+00   -0.989441128251897339E+00    0.123209584560814545E+01    0.397379967386979338E-02   -0.524963412697930607E+03
    0.895535235870752757E+02   -0.458418382227823162E+00    0.292898792280782416E+00   -0.631707425990413185E-02    0.737111463195966099E+00   -0.546989170600894248E+00   -0.157218531338377376E+01   -0.958880574049364665E+00    0.192161890411757241E-02   -0.524954327258611102E+03
    0.834507655035296523E+02   -0.441051582915033880E+00    0.277694281302597545E+00   -0.786387424468415475E-02    0.313565960503920937E+00   -0.399369274720598577E+00   -0.373027573236567989E+00    0.899123053156599017E+00    0.351891014297023297E-02   -0.524937299185626898E+03
    0.622733103965126560E+02   -0.382172177827958315E+00    0.711639848056471180E-01    0.640567660772479286E+00    0.113976502593886586E-01    0.226648641982244659E+00    0.450157078339056493E+00    0.769772695148862152E+00    0.127509537210745982E-02   -0.524919782724794914E+03
    0.832519451529508387E+02   -0.531460440162769832E+00    0.594001848948517264E+00    0.232851928131513120E+00    0.858101460326130550E-01   -0.377070709172565355E+00    0.197831039812204379E+01   -0.494029401289127312E+00    0.539469582069296294E-03   -0.524917982059677797E+03
    0.581438825274406312E+02   -0.440518682970736819E+00    0.168477840142218227E+00    0.956529788015153315E+00    0.153828922199301665E-01    0.386178633484371758E+00    0.158699079290438139E+00    0.109024124456737237E+01    0.184465013169754499E-02   -0.524906122665475550E+03
    0.780397764932217228E+02   -0.501075242430953693E+00    0.485730991745532137E+00    0.146370590849613791E+00    0.124727004222844329E+00   -0.238259416855442607E+00    0.751082380117882753E+00   -0.171943428700566936E+01    0.138020303136365818E-02   -0.524886797847010257E+03
    0.845134601561272802E+02   -0.371601338444944584E+00   -0.191119765262932617E-01    0.204254027603242960E+00    0.714629605301109194E-01   -0.431118632530713031E+00   -0.113552552222197711E+01   -0.106332161739665776E+01    0.214458443761511575E-02   -0.524866760486607518E+03
    0.588626987435393332E+02   -0.477234036327029987E+00    0.432210103961681469E+00    0.239640744703986996E+00    0.632060840716599515E-01    0.368855239239657351E+00    0.534014797447872613E+00    0.198719285682917457E+01    0.192878881069202812E-02   -0.524844507454585255E+03
    0.683111166179658369E+02   -0.416364633300729370E+00    0.906819286969380300E-01    0.469216750308266484E+00    0.943756794924950349E-01    0.369350791157736502E-01    0.144050574366090611E+01    0.887894972503846525E-01    0.269441043854912188E-02   -0.524754186406821418E+03
    0.992762439050329988E+02   -0.447092236163044277E+00    0.391380023070944105E+00    0.240462370107179524E+00    0.701507094870033043E-01   -0.778932478696372055E+00   -0.495008369269531512E+00    0.352892839975460060E+00    0.116356225074265573E-02   -0.524734883842718887E+03
    0.577224769123925370E+02   -0.462394541603468490E+00    0.206549335490313624E+00    0.856614825605907626E+00    0.377658172943231563E-01    0.417808130272028677E+00   -0.461592338122315038E+00    0.506185113712933621E-01    0.381427736614514679E-02   -0.524681030700603515E+03
    0.545683604206552104E+02   -0.504490062075810375E+00    0.610217930587706903E+00    0.462882733188216378E+00    0.959674576020907999E-01    0.534163985692993393E+00   -0.121058344293802822E+01   -0.194455864377854359E+01    0.962302703046313823E-03   -0.524675480666196336E+03
    0.810422423569125669E+02   -0.475541531993596944E+00    0.501507993138190500E+00    0.584646157409844491E+00    0.687343293220004092E-01   -0.331460228136763568E+00    0.512051501778586271E+00   -0.805523937029230197E+00    0.387250504679004237E-02   -0.524661698836267192E+03
    0.548471040219332266E+02   -0.430403798194799680E+00    0.256392050841423469E+00    0.222737807264266507E+00    0.343159592761832499E-01    0.510908528528278616E+00    0.429755743563036585E+00   -0.136542375996960419E+01    0.261655228261314932E-02   -0.524638577686274857E+03
    0.586605350381858770E+02   -0.448206763082452220E+00    0.201618034139126934E+00    0.300679219394027086E+00    0.640085550022524430E-01    0.376684333656084114E+00   -0.132831748367848923E+01   -0.180387271417211537E+01    0.300664103409120642E-03   -0.524610994096899276E+03
    0.743981429824623319E+02   -0.447174527010984146E+00    0.249841930586278238E+00    0.150921541649340796E+00    0.749111351722095975E-01   -0.148153428599522741E+00   -0.152173678267739487E+01   -0.135850433941293192E+01    0.394601226928692483E-03   -0.524573469079904044E+03
    0.576742743918426441E+02   -0.431673750498595243E+00    0.160791771810245621E+00    0.740566227712609049E-01    0.647386820513666805E-01    0.405934495861947742E+00   -0.118189604770679790E+01    0.179533092870886746E+01    0.288678800299413396E-02   -0.524565554186827512E+03
    0.566568897340663042E+02   -0.369883565346861065E+00   -0.701359985686984544E-01    0.436534343723000262E+00    0.948987085286931986E-01    0.438569532828725794E+00   -0.648892547771566575E+00   -0.676457420607353921E+00    0.124746005096643131E-02   -0.524564858852717975E+03
    0.575072270586631618E+02   -0.510420503294955363E+00    0.484069081650275734E+00    0.373185133337806008E+00    0.510326347904124233E-01    0.425496919612021962E+00   -0.968283973593373037E+00   -0.328054291984349211E+00    0.348348208403104209E-02   -0.524562583515664301E+03
    0.564892134734711533E+02   -0.464124778442520647E+00    0.307869758476117639E+00    0.970564168752270362E+00    0.839390492177365388E-01    0.458733831633581168E+00   -0.797636206480070165E-01   -0.142335141631038864E+01    0.282991839657409372E-02   -0.524547820220804510E+03
    0.878956371480976628E+02   -0.375682981351026957E+00   -0.256074641043930740E-01    0.228770819825568239E+00    0.852619138762475970E-01   -0.519181827224588721E+00    0.200352054094775855E+00   -0.639458820414948725E+00    0.613586960192202824E-03   -0.524546032769495127E+03
    0.594408260178722614E+02   -0.409730335934383127E+00    0.650052771136842011E-01    0.913262818727968551E+00    0.130489154268178531E-01    0.336016912843203563E+00   -0.151914686176862279E+01    0.123489408190984751E+01    0.174471381041363394E-02   -0.524510785513228711E+03
    0.857732551363389746E+02   -0.460892467680019902E+00    0.257950282686159937E+00    0.839412286433606880E+00    0.376176579914151432E-01   -0.448803572466374368E+00    0.737640297435733228E+00   -0.487962581180299004E+00    0.164286325637341690E-02   -0.523601272833046892E+03
    0.871900383429438364E+02   -0.448636053254217515E+00    0.273107241708270720E+00    0.403363838951191767E+00    0.877180784559277171E-01   -0.488089078750684635E+00    0.166228178254577541E+01   -0.180999843710923547E+01    0.302361177757060062E-03   -0.523859587101866737E+03
    0.766726569195817262E+02   -0.450726698514733126E+00    0.224852894520246593E+00    0.559311601696972360E+00    0.289484089388061250E-01   -0.210291368476355878E+00    0.146297629301853283E+01   -0.180450015352653992E+01    0.145154012642456642E-02   -0.524182354663551450E+03
    0.778346840327489815E+02   -0.399751426335954729E+00   -0.109313868173721573E-02    0.106328963314327041E+01    0.411945800866333478E-01   -0.250138421138812905E+00   -0.508726558436711773E-01    0.140440814587004636E+01    0.278088879671556377E-02   -0.523545358552477410E+03
    0.775614526799686814E+02   -0.386849305248035957E+00    0.582776061129344214E-01    0.503569411622846630E+00    0.765035749301303802E-01   -0.243535050269024334E+00    0.919061460164903643E+00   -0.813177747000424667E+00    0.283241778654841347E-02   -0.524445558088242365E+03
    0.806548271988794312E+02   -0.515955373407156248E+00    0.550195851713230155E+00    0.453011405736003070E+00    0.731482674258079335E-01   -0.311573337033340447E+00    0.625765826017752325E-01    0.116965075013392283E+01    0.724123924781272521E-03   -0.524142308283295506E+03
    0.794509495540158355E+02   -0.430312600403933931E+00    0.160504631603160419E+00    0.550339068238145046E+00    0.508462146161479112E-01   -0.292283557782575976E+00   -0.389355447275097077E+00    0.166375921224947732E+01    0.323242054849348648E-02   -0.523905162017760404E+03
    0.937579553106936032E+02   -0.497346160980889795E+00    0.400372427730964375E+00    0.549995591865339861E+00    0.892418899883549166E-01   -0.632618433877513153E+00   -0.982174651377365926E+00    0.110448867929475858E+01    0.283388842670628804E-02   -0.524086189798259056E+03
    0.829923397375539906E+02   -0.404056992135832349E+00   -0.363760040613847480E-01    0.897471765698325541E+00    0.552522608804428828E-01   -0.381551182112785714E+00   -0.162765466219675581E+01   -0.212417439116963092E+00    0.173659692897487616E-02   -0.523844800447086072E+03
    0.829923397375539906E+02   -0.404056992135832349E+00   -0.363760040613847480E-01    0.897471765698325541E+00    0.552522608804428828E-01   -0.381551182112785714E+00   -0.162765466219675581E+01   -0.212417439116963092E+00    0.173659692897487616E-02   -0.523844800447086072E+03
    0.994187950069512567E+02   -0.387199806113341261E+00   -0.524415149443093753E-01    0.106929332163438140E+01    0.353706840019478719E-01   -0.777121101235818346E+00   -0.487069639900224782E+00   -0.494994871361049027E+00    0.922329682787381699E-03   -0.524045093154494907E+03
    0.972680227196884175E+02   -0.401937488742385884E+00   -0.580531744180028397E-01    0.119282108220047078E+01    0.380997896682244708E-01   -0.726243818736126201E+00   -0.437621894057568905E+00   -0.109522104084807070E+01    0.254020404410271183E-02   -0.523791672070976801E+03
    0.776815521814725116E+02   -0.529291606770199596E+00    0.551133505968206094E+00    0.811654271529754112E+00    0.770498601661131488E-01   -0.221913293075086671E+00    0.113590350222809011E+01   -0.124014433506868293E+01    0.154693396226002200E-02   -0.524156383278976932E+03
    0.948993177064366762E+02   -0.478745326199456755E+00    0.406229583822954154E+00    0.912527213151603789E+00    0.348686354697913536E-01   -0.670528575051514641E+00    0.865095795347095464E+00    0.163420420645232767E+00    0.376069214888241632E-02   -0.524214632663869565E+03
    0.904869088104783259E+02   -0.407129310185392335E+00    0.699051140586064435E-01    0.627227667050904714E+00    0.399390880180536811E-01   -0.576893937627925624E+00   -0.134551635075312581E+01    0.231671238617185526E+00    0.969765014629642152E-03   -0.523731774712819856E+03
    0.944126436543661498E+02   -0.424328194767690015E+00    0.198157072650051447E+00    0.729173415728281427E+00    0.628931689976437447E-01   -0.665289508212805858E+00    0.115387307146300477E+01   -0.441223122149286606E+00    0.130438545412814300E-02   -0.523440449090645643E+03
    0.944126436543661498E+02   -0.424328194767690015E+00    0.198157072650051447E+00    0.729173415728281427E+00    0.628931689976437447E-01   -0.665289508212805858E+00    0.115387307146300477E+01   -0.441223122149286606E+00    0.130438545412814300E-02   -0.523440449090645643E+03
    0.771355602385214496E+02   -0.372457869740456360E+00   -0.620370297073549182E-01    0.633687688748693745E+00    0.542860433700966816E-01   -0.236159453830664168E+00    0.150839871892825039E+01    0.145106034863660138E+01    0.216370775932595016E-02   -0.524314735778720888E+03
    0.544779795495937549E+02   -0.457665515399315659E+00    0.309524224725253205E+00    0.517506938897607682E+00    0.556980651955041317E-01    0.528511586733139360E+00    0.988309063139160227E+00   -0.134506080282439555E+01    0.104758886109901361E-02   -0.523987729923641723E+03
    0.585978761271606743E+02   -0.511451756616511766E+00    0.583558498493090383E+00    0.692715784432529347E+00    0.752786498214450539E-01    0.381101061843561073E+00   -0.765073575163709885E+00    0.739976148609952311E+00    0.387150079650888657E-02   -0.523694742520955629E+03
    0.661545268288436574E+02   -0.386342418401315335E+00    0.438414372558266763E-01    0.887124866010198687E+00    0.201080875152888083E-01    0.990684318569359235E-01   -0.900068422828353532E+00    0.164699709640665093E+01    0.192650871878075058E-02   -0.524040614998284241E+03
    0.573092108157767655E+02   -0.464106065110288846E+00    0.239274298159219967E+00    0.534222458628805796E+00    0.459065916535261742E-01    0.428428660993715127E+00    0.140640194687422193E+01   -0.152116371113049875E+01    0.134086731328242337E-02   -0.524183554465775842E+03
    0.557409442459791862E+02   -0.442296425137896243E+00    0.301758032165981405E+00    0.318723814683503193E+00    0.869704482844615434E-01    0.482858191450332264E+00   -0.752609366064027396E+00    0.157148094789446979E+01    0.339071813473501571E-02   -0.524499557838925284E+03
    0.530974045019122016E+02   -0.366524562642497553E+00   -0.318196855641961207E-01    0.699473796611982834E+00    0.539932988189373297E-01    0.574581004797808603E+00   -0.156979811490836818E+01    0.192639229767610010E+01    0.302789339999476326E-02   -0.523532257477082112E+03
    0.530974045019122016E+02   -0.366524562642497553E+00   -0.318196855641961207E-01    0.699473796611982834E+00    0.539932988189373297E-01    0.574581004797808603E+00   -0.156979811490836818E+01    0.192639229767610010E+01    0.302789339999476326E-02   -0.523532257477082112E+03
    0.677321639724789293E+02   -0.532132928460171684E+00    0.532310778250078442E+00    0.808835927089566198E+00    0.547062792612496018E-01    0.759703690811730503E-01    0.581496847407869666E-01   -0.135696697851327075E+01    0.146267820845280561E-02   -0.524079683269537099E+03
    0.678197075960571567E+02   -0.428834791545216198E+00    0.243579265691550972E+00    0.659662898699881595E+00    0.688184824499571413E-01    0.513158007477105826E-01   -0.141318435900082084E+00    0.318313067930848792E+00    0.204523098372932921E-03   -0.523585834751153357E+03
    0.621276744600282171E+02   -0.470019998375053927E+00    0.342714389388380170E+00    0.928026966800372222E+00    0.727497210575753783E-01    0.249205347452105208E+00    0.881188866505782098E+00   -0.398236437126400666E+00    0.294023078409377803E-02   -0.524188116946899299E+03
    0.563732302854044036E+02   -0.454966654507801938E+00    0.309405391985182021E+00    0.980126059398674698E+00    0.606254857273365033E-01    0.458757724372762521E+00    0.310542721637338648E+00   -0.195692468555693111E+00    0.183316011252188105E-02   -0.523111642523044111E+03
    0.563732302854044036E+02   -0.454966654507801938E+00    0.309405391985182021E+00    0.980126059398674698E+00    0.606254857273365033E-01    0.458757724372762521E+00    0.310542721637338648E+00   -0.195692468555693111E+00    0.183316011252188105E-02   -0.523111642523044111E+03
    0.541843388937865029E+02   -0.512464273030210027E+00    0.490057214688551568E+00    0.637697824334015451E+00    0.444377893266723056E-01    0.553153167551989178E+00    0.198830542093561480E+01    0.834713777941620716E+00    0.205713722229994289E-02   -0.524349824695629877E+03
    0.627665945601576638E+02   -0.473104192861984796E+00    0.408225091111475535E+00    0.103985699728605496E+01    0.481046522759238648E-01    0.222166227962985019E+00    0.139865069728921165E+01    0.195786760910056623E+01    0.661105770651593261E-03   -0.523361045001506000E+03
    0.627665945601576638E+02   -0.473104192861984796E+00    0.408225091111475535E+00    0.103985699728605496E+01    0.481046522759238648E-01    0.222166227962985019E+00    0.139865069728921165E+01    0.195786760910056623E+01    0.661105770651593261E-03   -0.523361045001506000E+03
    0.575019247135733593E+02   -0.449650337462102367E+00    0.284272956052147308E+00    0.656589329691563250E+00    0.586124736801063584E-01    0.416895691198434726E+00    0.158012942400191925E+01   -0.330913361327423550E+00    0.643747846815756475E-04   -0.523569312211948500E+03
    0.543568519993190975E+02   -0.448678007786040833E+00    0.201534177745369192E+00    0.109651615009026315E+01    0.431893670476934943E-01    0.540116058804848365E+00    0.936807911875515931E+00   -0.185254296090493131E+01    0.154692673087786225E-02   -0.523052076761813510E+03
    0.543568519993190975E+02   -0.448678007786040833E+00    0.201534177745369192E+00    0.109651615009026315E+01    0.431893670476934943E-01    0.540116058804848365E+00    0.936807911875515931E+00   -0.185254296090493131E+01    0.154692673087786225E-02   -0.523052076761813510E+03
    0.605341348013031819E+02   -0.393035315713782030E+00    0.557748012475087762E-01    0.365685211221123296E+00    0.759850317832633237E-01    0.293893856761610728E+00   -0.213985186955713447E+00   -0.169141503859821096E+01    0.294355442932636713E-02   -0.524167537315644267E+03
    0.685261360079206270E+02   -0.455866486942472449E+00    0.333782364167147350E+00    0.269209981315794877E+00    0.885289067092798199E-01    0.325420134837610675E-01    0.144090950604377932E+01   -0.167135352553984462E+01    0.107454851975674615E-02   -0.524088301381243809E+03
    0.589610001127647436E+02   -0.450546309843779635E+00    0.997459900527388754E-01    0.913227439889709558E+00    0.474459203250483519E-01    0.368340872567932465E+00    0.188798121993667856E+00   -0.164358429433821973E+01    0.300918201715472122E-02   -0.524460349833563669E+03
    0.579895217503802485E+02   -0.456126818026145742E+00    0.301473609071056359E+00    0.127701088133969876E+01    0.635739779871191679E-01    0.401741488870774432E+00    0.191969318697760194E+01   -0.179343569903447198E+01    0.259112970546193644E-02   -0.524070479271650356E+03
    0.565700747296557296E+02   -0.463883566307743411E+00    0.279578575791280315E+00    0.849169260946228022E+00    0.475444750502140856E-01    0.454738034999604857E+00   -0.107418900077383950E+01   -0.161236520994279298E+01    0.326855968704276023E-02   -0.523843255392734136E+03
    0.565700747296557296E+02   -0.463883566307743411E+00    0.279578575791280315E+00    0.849169260946228022E+00    0.475444750502140856E-01    0.454738034999604857E+00   -0.107418900077383950E+01   -0.161236520994279298E+01    0.326855968704276023E-02   -0.523843255392734136E+03
    0.571044767460136882E+02   -0.360826894647660712E+00   -0.132580342057034173E+00    0.804969843694482989E+00    0.654740972968057555E-01    0.417062192523359521E+00    0.162768654085749986E+01   -0.546475042206468142E+00    0.111101923116829759E-02   -0.524346251470913330E+03
    0.552906241564659879E+02   -0.369061366242333211E+00   -0.967651733442664863E-02    0.106448647654893591E+01    0.379504077428691744E-01    0.481109603491258309E+00    0.409286859581421414E+00   -0.934121446621395624E+00    0.189357654367672268E-02   -0.523891806879694514E+03
