    0.745176676723253877E+02   -0.345772509570638265E+00   -0.243219960513544137E+00    0.189337010349132377E+02    0.142407434415840389E+00    0.310017763943266011E+01    0.710737706996891483E-01    0.144716180663678902E+02    0.114043080228218630E+00    0.480750594144047694E+00    0.434712906394613685E+00    0.636282748733819903E-02    0.726901713775587460E-01    0.218042807235802258E-01    0.604518659293584193E+02   -0.361785729246042020E+00   -0.925571508980063129E-01    0.193443887565727479E+02    0.144009855953565136E+00    0.305396713563247335E+01    0.793573061625016396E-01    0.604518659293584193E+02   -0.361785729246042020E+00   -0.925571508980063129E-01    0.193443887565727479E+02    0.144009855953565136E+00    0.305396713563247335E+01    0.793573061625016396E-01   -0.368521313027525991E+03   -0.346787221252097936E+03   -0.370681372348722618E+03    0.249649528436391779E-01
    0.745176676723345253E+02   -0.345772509570680897E+00   -0.243219960513574002E+00    0.189337010349156145E+02    0.142407434415858042E+00    0.310017763943303981E+01    0.710737706996979746E-01    0.144716180663455791E+02    0.114043080228161495E+00    0.480750594144070398E+00    0.434712906341786276E+00    0.636282748714108413E-02    0.726901713695188439E-01    0.218042807235672778E-01    0.604518659293584193E+02   -0.361785729246042020E+00   -0.925571508980063129E-01    0.193443887565727479E+02    0.144009855953565136E+00    0.305396713563247335E+01    0.793573061625016396E-01    0.604518659293584193E+02   -0.361785729246042020E+00   -0.925571508980063129E-01    0.193443887565727479E+02    0.144009855953565136E+00    0.305396713563247335E+01    0.793573061625016396E-01   -0.368274186389449483E+03   -0.346787221252097936E+03
