    0.722456398085039382E+02   -0.299431851425995155E+00    0.201186462080459449E+01   -0.460378994230259297E+00    0.189887291343209164E+02    0.143018262056064577E+00    0.307990399751691823E+01    0.704919615332438299E-01    0.128355790468581338E+00    0.133172432893476831E+02    0.109392305759067165E+00    0.253999029633054230E+01    0.431170531149774883E+00    0.402497082470365697E+00    0.627933047057075561E-02    0.717951727017483721E-01    0.207278772250382021E-01    0.373102391177408177E+00    0.760251190863429827E+02   -0.237229271806456143E+00    0.838219088291574366E+01   -0.771607769539560451E+00    0.188305069503303528E+02    0.141943418631558044E+00    0.298998905865061015E+01    0.647714028434619726E-01    0.153784712509921206E-01    0.760251190863429827E+02   -0.237229271806456143E+00    0.838219088291574366E+01   -0.771607769539560451E+00    0.188305069503303528E+02    0.141943418631558044E+00    0.298998905865061015E+01    0.647714028434619726E-01    0.153784712509921206E-01   -0.378443030276614536E+03   -0.352648553312889135E+03   -0.381750170136037809E+03    0.487795070658596674E+00
    0.722456398085016360E+02   -0.299431851425985607E+00    0.201186462080453010E+01   -0.460378994230244865E+00    0.189887291343203124E+02    0.143018262056059969E+00    0.307990399751681965E+01    0.704919615332415261E-01    0.128355790468577202E+00    0.133172432893535220E+02    0.109392305759078198E+00    0.253999029633052542E+01    0.431170531149774328E+00    0.402497082484700230E+00    0.627933047062434989E-02    0.717951727037401122E-01    0.207278772250417617E-01    0.373102391177402903E+00    0.760251190863429827E+02   -0.237229271806456143E+00    0.838219088291574366E+01   -0.771607769539560451E+00    0.188305069503303528E+02    0.141943418631558044E+00    0.298998905865061015E+01    0.647714028434619726E-01    0.153784712509921206E-01    0.760251190863429827E+02   -0.237229271806456143E+00    0.838219088291574366E+01   -0.771607769539560451E+00    0.188305069503303528E+02    0.141943418631558044E+00    0.298998905865061015E+01    0.647714028434619726E-01    0.153784712509921206E-01   -0.378260297130287256E+03   -0.352648553312889135E+03
