    0.773359929249209443E+02   -0.348983071602603445E+00    0.189645928334046410E+01   -0.246168898202304115E+00    0.188481314747152275E+02    0.142317777280862395E+00    0.309024701357140463E+01    0.697606040777409148E-01    0.212817756505081251E+00    0.134654561619972757E+02    0.117284640566927140E+00    0.286388467000795632E+01    0.490595182097744553E+00    0.395874980047428271E+00    0.632462586526388263E-02    0.793815165539231565E-01    0.215280182936426721E-01    0.425307542723242615E+00    0.828320813029030205E+02   -0.303520126716724459E+00    0.964834855430003557E+01   -0.413076386996497291E+00    0.186671763416868615E+02    0.143761877780168912E+00    0.306977291952499742E+01    0.756024277756053575E-01    0.197794988888921885E-01    0.828320813029030205E+02   -0.303520126716724459E+00    0.964834855430003557E+01   -0.413076386996497291E+00    0.186671763416868615E+02    0.143761877780168912E+00    0.306977291952499742E+01    0.756024277756053575E-01    0.197794988888921885E-01   -0.371459290985046607E+03   -0.345077733804112881E+03   -0.374331209505310710E+03    0.465215654329721867E-01
    0.773359929248895810E+02   -0.348983071602462058E+00    0.189645928333969471E+01   -0.246168898202205139E+00    0.188481314747076567E+02    0.142317777280804747E+00    0.309024701357014564E+01    0.697606040777127845E-01    0.212817756504994487E+00    0.134654561620840685E+02    0.117284640567112491E+00    0.286388467000763569E+01    0.490595182097670113E+00    0.395874980225191853E+00    0.632462586591420271E-02    0.793815165785383692E-01    0.215280182936838475E-01    0.425307542723178666E+00    0.828320813029030205E+02   -0.303520126716724459E+00    0.964834855430003557E+01   -0.413076386996497291E+00    0.186671763416868615E+02    0.143761877780168912E+00    0.306977291952499742E+01    0.756024277756053575E-01    0.197794988888921885E-01    0.828320813029030205E+02   -0.303520126716724459E+00    0.964834855430003557E+01   -0.413076386996497291E+00    0.186671763416868615E+02    0.143761877780168912E+00    0.306977291952499742E+01    0.756024277756053575E-01    0.197794988888921885E-01   -0.371322503240381309E+03   -0.345077733804112881E+03
