    0.700065430637551600E+02   -0.311879278429034623E+00    0.324679441847750994E+00   -0.382338961323291981E+00    0.190825600819755508E+02    0.142293337769841766E+00    0.308746517820818500E+01    0.725805109577833257E-01    0.276103068068871860E+00    0.163737827206766866E+02    0.837258814586298444E-01    0.697644948901265494E+00    0.368151742442701935E+00    0.491001232355678885E+00    0.599242054379400726E-02    0.596446337865278245E-01    0.269312552076812137E-01    0.582869581199210285E+00    0.510386125574764407E+02   -0.281603930608303799E+00   -0.484548855823749847E-01   -0.395742808222083298E+00    0.196895851269317248E+02    0.144830117490923727E+00    0.306895446782905879E+01    0.901084853296978822E-01    0.122843179038901518E+00    0.510386125574764407E+02   -0.281603930608303799E+00   -0.484548855823749847E-01   -0.395742808222083298E+00    0.196895851269317248E+02    0.144830117490923727E+00    0.306895446782905879E+01    0.901084853296978822E-01    0.122843179038901518E+00   -0.385819447040450029E+03   -0.353987387227065085E+03   -0.381117285737660609E+03    0.255838478881106945E+00
    0.700065430637439761E+02   -0.311879278428984774E+00    0.324679441847699257E+00   -0.382338961323231474E+00    0.190825600819724990E+02    0.142293337769819062E+00    0.308746517820769251E+01    0.725805109577717100E-01    0.276103068068827506E+00    0.163737827206994595E+02    0.837258814587160394E-01    0.697644948901221751E+00    0.368151742442704044E+00    0.491001232415300637E+00    0.599242054406409763E-02    0.596446337992895606E-01    0.269312552076947896E-01    0.582869581199174203E+00    0.510386125574764407E+02   -0.281603930608303799E+00   -0.484548855823749847E-01   -0.395742808222083298E+00    0.196895851269317248E+02    0.144830117490923727E+00    0.306895446782905879E+01    0.901084853296978822E-01    0.122843179038901518E+00    0.510386125574764407E+02   -0.281603930608303799E+00   -0.484548855823749847E-01   -0.395742808222083298E+00    0.196895851269317248E+02    0.144830117490923727E+00    0.306895446782905879E+01    0.901084853296978822E-01    0.122843179038901518E+00   -0.378262517617218066E+03   -0.353987387227065085E+03
